2.536454,-1.2027051,0.043262776,-2.2265189,-3.9906971,3.2520354,-4.6958485,-0.9484744,-4.976394,-5.329894,-2.6243713,-6.1258636,0.048908405,-5.011225,-4.3143306,3.3611941,-10.208004,-4.507347,-0.56789595,3.368808
2.1058388,1.1444725,-4.2130604,-2.3853345,-4.2966113,-2.1147327,-0.8860836,3.7548778,5.137103,-1.8704591,1.6867943,-9.688347,0.9935863,-2.6056921,2.0175338,-6.1132207,-7.99769,-9.22936,-4.3290052,-8.140804
-3.4257288,-2.451005,-0.72818244,-0.50573415,0.74097973,1.2659943,1.0379494,-0.69905716,-3.746495,-2.846932,-3.326972,-5.8676076,-2.3918173,-3.712975,-6.804262,-5.9335914,-9.539335,-3.1694965,-9.797062,-9.130418
-0.5041676,0.7701927,1.4507084,2.6210809,-2.3322825,-3.633961,1.2950151,0.43279442,1.9202571,-5.0135274,-2.1840124,1.6260983,-9.359795,-3.6787674,-5.6074443,-5.697489,7.0492625,0.8106174,-1.8365085,1.9680915
-1.1924859,-0.6727203,-1.247417,5.9835424,-0.0026125489,-1.5821968,2.881892,0.5339768,-0.85877496,-4.546758,-3.007761,0.28826794,2.5364366,-1.9542024,-8.4161,-7.7675824,-6.2150235,-6.219994,-8.472505,-9.214399
0.064018734,-0.6993424,2.1044042,1.4845637,1.2558719,-0.41320562,-0.08627948,-1.2681434,-0.45848635,-0.13304806,-2.2664506,-2.7852259,0.02649448,-1.4836665,1.01223,-1.1013067,-1.5603359,-1.3378098,-5.111575,-4.818915
-2.034742,0.03844182,1.028271,0.12243275,-0.69500685,7.5602083,-5.4257216,-1.6517502,-3.5486119,-4.0557094,-0.40763342,0.8225479,-0.019151198,-3.33365,-0.841317,-4.291342,-16.237608,-7.834212,-9.7542305,-5.82594
-1.272795,0.20167023,-0.25160885,-0.27493805,0.25190583,-0.53252834,1.2792915,-0.73468584,1.5968223,1.4254508,-1.4700965,-1.8212928,-1.9875454,-0.87507486,0.5567934,0.34940037,-5.139487,4.5490065,-1.7645787,-1.883468
-0.20705171,1.4086685,1.7535396,0.985746,-0.561493,-1.9446315,0.61317176,-0.5390566,-0.5353639,3.5782099,1.4908295,1.9616048,-1.586643,1.5926944,3.3542142,1.7934333,0.96035105,-0.27758482,1.4552374,1.8085265
0.53888935,0.6567583,-6.8063416,-7.817079,-3.9308887,-4.9125733,-4.271855,-3.0460832,2.3344128,-0.46501565,-3.2159512,3.1645322,-0.80019945,5.4336414,-4.438476,2.1667309,5.133712,-0.7236619,4.633892,2.8529818
0.23923911,0.702933,1.8338459,1.585658,0.10422716,-1.1972026,0.3633918,-0.35388052,-1.1912888,0.13222624,0.77303123,0.67031384,-1.1362468,1.1130904,-0.5975054,3.5422678,-2.4225583,3.2597642,0.25020692,-0.33846864
-2.637135,-1.7786978,0.38509044,-3.3231046,-4.73566,-5.1457863,-0.8397442,4.6811132,-4.309236,2.2326407,2.1403167,0.8691673,1.3463857,-6.8231373,-7.1008196,-6.8286858,-0.39987397,1.6584148,5.84915,-1.3211527
-1.8921437,0.66431946,-0.8548554,-0.3387316,1.1599047,1.893334,-0.06704317,0.60733676,-0.13725835,-3.8262892,-2.764978,-6.24973,-2.344246,-3.3837404,-3.193456,-1.3441435,-3.53334,-0.021194262,-4.7574143,-4.8397574
0.18391326,-0.13158828,-1.8604021,-2.5022411,-3.4591684,-4.6155376,1.6989863,-3.0988238,-4.580195,4.508679,7.1364546,-3.4686291,0.45757923,-4.137747,-4.37898,-0.51815397,-6.8801923,-4.0542216,-4.38034,-4.5324283
-0.4649595,1.1130764,-1.592014,-0.48552927,0.7738701,1.568922,0.79848874,-2.044308,-5.177178,-0.011037632,-4.5901065,-4.443565,-5.6455755,-0.15114808,1.3730236,-0.6093617,-5.712434,-1.219139,-0.93918526,-1.22603
-0.67869836,-0.15521793,-0.0009893314,1.9400892,-0.23176798,-1.2112719,2.439265,-1.3112164,-2.682132,1.2609233,-1.057034,-1.7177867,2.3637066,-0.43666935,-1.2177751,3.2017696,-3.4181411,3.787833,-0.7670646,-0.49471432
-2.5101953,-1.6073099,-1.1510277,0.66035444,6.6566305,-1.3746357,-2.7281072,-1.0452237,-0.096200794,2.3460207,-1.7861623,-3.5227945,2.9400692,3.6289475,-3.2804947,0.98362106,-14.410356,-2.2071655,-10.375211,-2.2749014
-1.635219,-0.59342664,0.011810821,0.8395201,2.5878448,1.0169358,-1.6812053,-0.8759884,-2.4399087,-3.289225,-3.486161,-3.8623834,-2.9052026,-2.9659386,-3.161389,-2.2879715,-4.964228,-0.6796996,-3.8101451,-1.748731
-0.4359331,-0.017648008,1.5403436,-1.3061328,3.3646748,-2.8938076,1.9034044,-1.2848443,-5.110021,-1.1971273,0.31350708,-3.7776418,1.8299756,6.761805,7.356751,-5.205276,-6.4428096,1.7856519,4.5086794,-7.0113845
-0.37601337,0.06949662,1.0042759,1.269112,-0.2540098,-2.1546116,-1.4499075,0.048698258,-0.4101898,3.9843268,-0.2563171,-0.16317588,-0.34366122,0.33542418,4.555783,2.5895412,-1.2568773,-0.111385256,-0.3839958,-1.3416158
-0.24109483,-0.6623063,-0.5469621,3.0890112,1.9443722,-0.15277983,-1.3413836,-0.85936946,-4.038518,-1.8663906,-2.7821054,-2.1550035,-2.8008015,-2.9086688,-5.0445743,-5.717682,-10.308463,-2.0248191,-8.845273,-8.267412
0.15349051,-0.13470843,-0.20518012,0.6272496,-1.4862933,1.6663872,0.4120952,-1.0754489,-0.15856075,-0.6352662,-0.07298986,-1.8795127,-2.0599844,-2.1718805,-5.071053,-0.0037663828,-4.2159085,-1.1117783,6.8830805,-5.491743
-1.2200155,0.6088126,0.7475858,1.8370174,0.86629516,0.73326117,-0.7832652,-0.06512522,-2.4600968,1.2099639,3.4681003,0.22420181,-2.944229,1.5107589,-0.042149063,-1.0634634,-7.601236,-2.8256085,9.230782,-1.6796862
-0.18323211,-0.5963144,5.080521,-0.16960964,4.9006734,-2.8321834,3.074037,0.9851482,-5.3293114,-2.389558,5.1117287,5.646374,-1.1425425,-7.593235,-3.953263,-8.148464,-2.1213326,-8.130746,-2.6530063,1.2482257
-1.8304816,0.3529199,1.3570545,2.2488766,-0.2494829,0.7881935,-0.7975635,-1.9886807,-0.22043574,0.04629794,-1.1359355,-2.3644736,2.9518473,-1.8857636,-1.3326977,-2.6842546,-13.320135,-3.5676181,-6.491192,-4.546362
-0.19172062,-1.3261662,1.6268038,-0.23961346,1.9068512,-0.36841667,0.20365034,-0.04097922,-0.13738547,1.4542572,-0.7651514,-0.8766971,2.5144765,-1.7480054,-1.5762311,-1.3219563,-1.9001598,-1.1365137,-1.4517362,1.6929345
-0.87447935,-0.566544,0.51873744,-0.7147785,-1.9646822,-1.1938146,0.67256117,-2.2655745,-0.4857562,0.51612836,-1.7397406,-2.227183,1.0718391,0.21364062,4.6024666,-0.10087639,-2.2475162,3.5790355,0.1849179,-1.3748671
0.34157342,-0.38204083,0.010877382,1.3517995,1.3605127,-0.055616062,0.71318924,0.10422436,-1.7031101,2.561728,0.8952543,0.18589161,-1.4873137,0.83851314,1.1972635,1.9165789,-1.4658059,-1.585762,1.5827967,0.0028573922
0.11530093,0.30612037,-0.42032704,-1.8392774,-1.7919331,-4.596368,2.8573325,3.4409509,-1.820503,-2.3883226,-4.846222,-2.8271735,3.3817983,-0.46125007,4.105723,-7.9797134,-1.2791258,-2.2186077,-3.2773132,-9.061693
-6.891185,-6.214895,-11.598395,-6.5980616,-15.420889,-13.009432,-8.853836,-8.5087,-6.506312,-4.4532676,-3.5152245,-1.7280419,-0.13503088,-2.5418355,-2.0084,-1.6426331,-5.228117,-3.178618,-8.626013,-10.632068
-2.5836682,0.85697895,-0.4394382,0.90162104,0.30026025,0.9001317,0.020823864,0.27667272,-2.7485585,-0.97127825,-2.445667,-5.8393474,-4.602186,-3.2782364,-3.9510062,-2.988846,-8.530172,2.1187758,-4.0736394,-5.222823
-0.80137837,0.34604123,1.5876595,0.506884,1.2988904,-2.2147622,-1.7104942,-0.1894128,-1.371765,0.44717154,0.7453437,-2.3440661,-0.834016,-1.3144641,-0.42397773,-0.6609959,-5.723573,-0.9521658,-2.17586,-3.9012485
-3.1888726,2.1561701,1.7801375,-1.2271607,-1.5659596,0.8063647,-1.9516543,-3.7948415,-8.19743,-4.7937846,-7.168777,-4.275377,-2.005901,-6.4281654,-2.6226726,-7.39095,-12.127893,-5.478542,-14.15579,-11.732518
-2.0376565,-0.38768533,-0.766812,1.0376363,0.20577516,-1.0265473,-0.35434383,0.8147598,-2.8519561,-2.0204198,-5.0452137,-6.8124695,3.9162745,-6.6868577,-4.989507,-0.6455127,-14.382758,-4.6412425,-1.9551729,-3.8940203
-0.5717496,1.0632427,1.4950992,-0.111098446,-1.9275607,-4.857622,-0.88146985,-1.3202262,-1.2027591,5.2712684,-1.2822611,8.170317,0.73402464,-1.32079,-2.819083,3.9330714,-0.7264825,-0.32628366,-1.7384875,-0.6605659
-0.87188774,0.11105453,1.2586732,1.6181864,-2.8847973,3.6064124,-6.8379908,-2.2034895,1.7241695,3.717036,-0.57418144,-0.80094844,2.0066102,-2.208016,-4.503148,-3.7795584,-5.944368,-1.5894347,-7.0727777,0.10881874
-0.792244,0.91785395,1.560524,1.9315894,-3.0419757,-2.5919015,-0.61395484,-1.0172747,-6.8653445,5.281005,-0.12415046,-3.3948696,-4.894439,0.05159541,3.5861988,-1.3208996,4.3503776,-3.5855377,-2.5061367,5.383142
-0.15246801,0.31201822,1.7585204,0.55950683,-0.21894787,-0.33191076,0.41245744,-1.073953,0.51985234,3.7542164,-1.4569135,6.145245,-2.1581693,-1.0647937,0.4054149,6.247712,-1.2481446,-1.3720523,-0.35742545,-2.1239066
-0.32208258,0.77839017,1.0933671,2.7148995,2.950253,1.110492,0.16277452,0.48102412,-0.7453875,2.5164745,0.24123171,-3.602848,-3.1040137,-0.047500726,-0.7299092,-0.32209966,-4.1188073,-3.7962227,-2.9644096,-1.275838
1.7517079,1.0649878,4.252638,1.5453523,-2.4882483,5.626816,-2.4723864,-2.2304137,-2.3362987,-3.5476632,-2.0549054,-3.6970756,-0.07058807,-3.1457589,-0.18265913,5.1322365,-5.4093747,-1.3364198,-2.0071828,-1.1142002
0.38122368,1.2279742,-0.026590938,-1.4841803,-1.4468683,-3.9783561,3.4888282,-1.0132042,0.05469263,-0.47964057,-3.5201173,-4.769868,-7.074098,-3.4954464,5.2448144,2.9021869,-4.837254,-4.2034903,-0.23432049,-2.7790203
-2.4366767,-0.1326222,0.5386587,0.80961734,0.7849501,-4.0063562,6.38645,0.6850196,0.72251874,-5.1102786,-3.2270877,-5.0403895,3.8150086,-6.7258663,-4.910721,-4.3027916,-17.129799,-1.6451175,-2.1342137,-6.9453864
-0.9956294,-0.398747,1.5446665,1.0365449,0.2743209,-2.381876,-0.2508283,-0.7425217,-1.7863914,3.0674098,-0.37006733,-2.8529148,1.0013456,-2.2835653,5.9603066,7.107136,0.8841867,-2.1875405,-0.6838535,-3.7251704
-1.2533092,-0.39920264,0.7865753,-0.58519274,1.5841945,-0.8086541,-3.3231168,-2.24,-1.3017465,1.6760812,-3.7208743,-0.11965709,-2.5041192,-5.052396,-0.850311,2.3862176,-4.369519,7.6332507,0.20254561,-3.7390807
-0.42360017,0.9447395,0.21310759,3.0909274,0.8292493,-3.194129,-0.66712403,0.33230612,-1.0077125,4.9098616,0.2293472,-0.3156104,1.6719903,-1.95137,-1.7779812,-2.2863295,-3.4449804,-0.83382624,0.7721885,2.1940134
1.1770606,-1.457478,-2.025021,-1.8117969,2.3136723,-3.1551468,-0.08324358,-1.6902959,-5.097096,-2.0796373,-8.057103,-5.430915,-3.9838188,-1.9408377,-5.911116,-5.352627,-3.1861565,3.8729873,-5.214381,-1.1512878
0.078894034,-0.60207766,-0.6093,-1.0939907,0.27273312,0.74502796,-0.56959224,1.7609793,-2.1023242,0.36918482,-2.587839,6.925294,-3.8721373,0.3324695,-0.15872997,-5.0201902,-1.8533525,-0.71124685,-3.7925766,4.862928
-2.2285838,-0.37203255,1.0831748,1.0323404,-0.94049245,-3.5352168,0.054110948,-0.8694609,6.8522577,-2.0567966,-5.1398115,7.3015957,-3.650547,-3.4677515,0.7294093,0.31490225,-0.9877244,-3.814184,-2.6387458,-12.341372
0.36016953,0.073864505,0.66544133,-0.78019494,-2.2239754,1.7134415,2.6359475,-0.039028153,-1.1489778,1.9149605,-1.5266647,-0.58995885,-3.6250095,-0.25303742,0.15431885,1.2447368,-2.9709654,0.35273272,0.98244494,0.7332317
-0.36113045,1.1093132,0.32981738,1.0624379,-0.6087355,-2.386867,-1.09948,-0.91358453,-1.1470962,4.7384357,1.3230847,1.9488732,-3.5835767,2.4701285,0.02595712,1.2788962,-0.09765221,-1.5772009,-0.55399776,1.1461374